import "@babel/polyfill";
import * as tf from '@tensorflow/tfjs';

/**
 * Convert an array to tensorflow matrix
 * @param {Array} value array like [[1,2,3,4]] 
 * @param {Number} row row count of the matrix, if <=0 means auto
 * @param {Number} col column count of the matrix, if <=0 means auto
 */
function arrayToMatrix(value, row = -1, col = -1) {
    if (row <= 0) {
        row = value.length;
    }
    if (col <= 0) {
        col = value.map(
            row => row.length
        ).reduce(
            (a, b) => Math.max(a, b)
        );
    }
    return tf.tensor2d(value, [row, col]);
}

let modelLoaded = undefined;

const GLOBAL = Function("return this")();

GLOBAL.isLoaded = function() {
    return typeof modelLoaded !== "undefined";
}

/**
 * Predict Function
 * @param {*} input_data Input data (maybe a matrix)
 */
GLOBAL.predict = function (input_data) {
    if (!isLoaded()) {
        console.log("Model not prepared yet.")
        throw Error("Model not prepared yet.");
    }
    const array = [];
    modelLoaded.predict(
        arrayToMatrix(
            input_data
        )
    ).dataSync().forEach(
        x => {
            array.push(x)
        }
    );
    return [array];
}

tf.models.modelFromJSON(
    {"class_name":"Sequential","config":[{"class_name":"Dense","config":{"units":60,"activation":"sigmoid","use_bias":true,"kernel_initializer":{"class_name":"RandomUniform","config":{"minval":-0.05,"maxval":0.05,"seed":null}},"bias_initializer":{"class_name":"Zeros","config":{}},"kernel_regularizer":null,"bias_regularizer":null,"activity_regularizer":null,"kernel_constraint":null,"bias_constraint":null,"name":"dense_1","trainable":true,"batch_input_shape":[null,13],"dtype":"float32"}},{"class_name":"Dense","config":{"units":3,"activation":"softmax","use_bias":true,"kernel_initializer":{"class_name":"VarianceScaling","config":{"scale":1,"mode":"fan_avg","distribution":"uniform","seed":null}},"bias_initializer":{"class_name":"Zeros","config":{}},"kernel_regularizer":null,"bias_regularizer":null,"activity_regularizer":null,"kernel_constraint":null,"bias_constraint":null,"name":"dense_2","trainable":true}}],"keras_version":"tfjs-layers 0.9.1","backend":"tensor_flow.js"}
).then(
    model => {
        model.setWeights([
            tf.tensor([-0.021056044846773148,-0.014577172696590424,0.0720711201429367,0.03756479546427727,0.055333830416202545,0.010612848214805126,0.01051992829889059,-0.009342617355287075,0.05250054970383644,-0.007788635790348053,0.1431025266647339,-0.00140042242128402,-0.0818636417388916,0.020150987431406975,0.12428591400384903,0.04719694331288338,-0.22246380150318146,-0.049321576952934265,-0.02204292081296444,0.05856313183903694,0.0077340141870081425,0.004248766228556633,-0.05110308900475502,0.00013767062046099454,-0.0783349797129631,-0.04641314223408699,-0.31617775559425354,0.026500480249524117,0.04136627912521362,0.036764439195394516,0.043444354087114334,-0.02714921347796917,-0.022775139659643173,-0.03802571818232536,0.12819279730319977,-0.0569247268140316,-0.010954746976494789,-0.04722165688872337,-0.011439396999776363,-0.04649980366230011,0.0425630621612072,-0.07054759562015533,-0.02585301175713539,0.12211961299180984,-0.06820251047611237,-0.06740126758813858,0.11005494743585587,0.02077459916472435,0.01496984250843525,0.0372060164809227,-0.048263534903526306,-0.009126266464591026,0.020650621503591537,-0.1067240983247757,0.033644307404756546,-0.09009963274002075,-0.18056271970272064,0.035460006445646286,0.22117790579795837,0.027822112664580345,0.041089825332164764,-0.03147904574871063,-0.5816784501075745,-0.014203730039298534,0.05216978117823601,-0.07214958965778351,-0.05107567086815834,-0.037678446620702744,0.00733117526397109,0.01520574651658535,0.0872785821557045,0.04955574870109558,0.0025634735357016325,0.016232216730713844,-0.6601211428642273,0.0364169105887413,0.2790226936340332,-0.0571998655796051,-0.007583477534353733,-0.5336252450942993,0.031871844083070755,0.013908232562243938,-0.004981649573892355,-0.04573231562972069,0.5470336079597473,0.014975262805819511,0.16683416068553925,0.41825637221336365,0.06733187288045883,0.0011657783761620522,0.043028824031353,0.0020412581507116556,-0.027276458218693733,-0.06972115486860275,-0.33119404315948486,0.4251951575279236,0.016760818660259247,0.01892831176519394,0.014600694179534912,-0.025195838883519173,0.0026092915795743465,0.028235455974936485,0.019220519810914993,0.04329271987080574,-0.05054245889186859,0.4755302667617798,-0.3045811057090759,-0.009784688241779804,-0.019952043890953064,0.00914226844906807,-0.016319820657372475,-0.011221705935895443,-0.006118347868323326,0.10965131968259811,0.06365571171045303,0.6705477833747864,0.3956843614578247,0.042350415140390396,-0.16981415450572968,0.05764627829194069,-0.017608892172574997,0.008697415702044964,-0.15415965020656586,-0.02017456293106079,0.05673418939113617,0.01569727435708046,-0.013908409513533115,-0.03147803619503975,0.01573275960981846,0.018425658345222473,-0.03482804819941521,0.005577599164098501,-0.07431681454181671,0.03444990515708923,-0.07282658666372299,0.04944104328751564,-0.011475764214992523,0.0025239093229174614,0.025798581540584564,-0.06544055044651031,0.06256423890590668,0.028879810124635696,-0.06919029355049133,-0.048723310232162476,0.15469278395175934,0.0018287173006683588,0.007963244803249836,0.07882870733737946,0.005665586329996586,0.07130764424800873,0.03431669622659683,0.023734448477625847,0.0038430083077400923,-0.08931470662355423,-0.028740378096699715,0.12328054755926132,-0.037015400826931,-0.04577546566724777,-0.04435225948691368,-0.05246516689658165,0.005647801794111729,-0.007647083606570959,-0.04107373580336571,-0.07152193784713745,-0.026965145021677017,0.06618767231702805,0.05979319289326668,-0.008137286640703678,0.049696970731019974,0.026086900383234024,-0.01660279370844364,-0.010693750344216824,0.04075724259018898,0.008825731463730335,0.059355005621910095,0.1287986785173416,0.0471222810447216,-0.031258586794137955,0.015065740793943405,-0.02287980355322361,-0.08132979273796082,-0.01618698611855507,-0.10246141254901886,0.015476292930543423,0.034429896622896194,-0.016335437074303627,0.04771573469042778,-0.020371712744235992,0.04365574195981026,0.04250698164105415,0.3419629633426666,0.08086830377578735,-0.07251127809286118,0.02759259194135666,0.20245257019996643,-0.000711092900019139,-0.20127561688423157,-0.015291146002709866,0.04918479919433594,0.49838849902153015,0.031832605600357056,0.0003915854904334992,-0.016048941761255264,0.03223727270960808,0.031092112883925438,-0.0349942147731781,-0.41855159401893616,0.1489357203245163,0.005073936656117439,0.0388793908059597,-0.008069471456110477,0.0018530016532167792,-0.0435536652803421,-0.026311025023460388,0.380520224571228,0.07967018336057663,-0.05353626608848572,-0.009626335464417934,-0.0023398883640766144,-0.0021852501668035984,0.006556833628565073,-0.06275463104248047,0.04130552336573601,0.2655917704105377,-0.0457727275788784,-0.5136157274246216,0.3884669244289398,-0.03939005732536316,0.007099721115082502,0.05853767320513725,0.03799138218164444,0.06171078234910965,0.04319723695516586,-0.3832164406776428,0.013775637373328209,-0.11349339783191681,-0.08452729880809784,0.0012881397269666195,0.16881290078163147,0.06819360703229904,0.024944189935922623,0.047961924225091934,0.01380886323750019,0.037899088114500046,0.0015245608519762754,-0.013269596733152866,-0.020450830459594727,0.01586988754570484,0.04811789467930794,0.04824450984597206,-0.03336939588189125,0.011984867975115776,-0.06115313991904259,-0.010457100346684456,0.0042232489213347435,0.0724499523639679,-0.031994760036468506,-0.026623232290148735,0.04185906797647476,0.026193609461188316,-0.004607465583831072,-0.07766104489564896,-0.06794790178537369,0.049310702830553055,0.0026388398837298155,-0.009144311770796776,0.008022014051675797,-0.021066686138510704,-0.004260621033608913,0.00041662619332782924,0.010313274338841438,-0.010084367357194424,-0.06093709170818329,-0.0373181477189064,0.0836629569530487,-0.02351517230272293,-0.06523098796606064,-0.005293250549584627,-0.028696496039628983,-0.06236852705478668,0.045463576912879944,-0.08039940893650055,-0.01425135601311922,-0.0030716462060809135,0.0035409778356552124,-0.06397753953933716,0.10439349710941315,0.04121661186218262,0.017017925158143044,0.008435393683612347,-0.002461589640006423,0.044686924666166306,-0.025449564680457115,-0.10613413155078888,0.07263689488172531,-0.01931707188487053,-0.08347635716199875,0.030540315434336662,0.11847925186157227,0.04658079892396927,-0.04523242637515068,-0.02810749039053917,0.4244759678840637,0.003136580577120185,-0.08090659230947495,-0.014483578503131866,0.07178129255771637,0.031434912234544754,0.02485468052327633,0.01999763771891594,-0.31260946393013,0.015450569801032543,-0.15212157368659973,0.017298150807619095,0.20150017738342285,-0.013625847175717354,-0.2622899115085602,-0.06923958659172058,-0.040599483996629715,-0.19237564504146576,0.02581716701388359,-0.020667143166065216,-0.0659412071108818,-0.041409216821193695,-0.35740330815315247,-0.04708688333630562,0.11863774061203003,-0.5499024987220764,0.034396812319755554,0.00860784761607647,0.03461539000272751,0.007314556743949652,-0.06495105475187302,-0.10083331912755966,0.07909708470106125,-0.45838791131973267,0.015296385623514652,0.0021829979959875345,0.034730613231658936,-0.01322104036808014,-0.0009044571779668331,-0.0025545298121869564,-0.02581687457859516,-0.4031813442707062,-0.06401700526475906,0.07337319850921631,0.012978323735296726,-0.048723120242357254,0.03717688098549843,0.0015203147195279598,-0.00696794968098402,0.0422724224627018,-0.0025242685806006193,-0.04521959647536278,0.005575785879045725,-0.33037543296813965,-0.21430914103984833,0.02302418276667595,0.29167357087135315,0.04397398605942726,-0.015510283410549164,-0.027412772178649902,1.450778603553772,-0.03725779429078102,-0.026610657572746277,0.0010965792462229729,0.14907251298427582,-0.03779450058937073,0.002889714203774929,-0.029248178005218506,-1.0029312372207642,0.008942946791648865,-0.29066577553749084,-0.005867110565304756,0.34170016646385193,0.04050574451684952,-0.1998898833990097,-0.042021118104457855,-0.03102889284491539,-0.727446973323822,0.03057081438601017,-0.04282774776220322,0.01640963740646839,-0.011533004231750965,-1.2638237476348877,-0.0036846997682005167,0.735418975353241,-1.5602216720581055,-0.013666313141584396,0.049459412693977356,0.07194031774997711,-0.06509029865264893,0.0023664478212594986,-0.0906665027141571,-0.27420708537101746,-1.697834849357605,-0.06422796100378036,0.013510551303625107,0.06969001889228821,-0.049743860960006714,0.04695696383714676,-0.04052193462848663,-0.01881594955921173,-1.0715794563293457,-0.052047714591026306,0.5620391964912415,-0.3997107446193695,-0.029195161536335945,0.00416022352874279,0.047438837587833405,-0.02336294576525688,0.07045122981071472,-0.017008699476718903,0.4916137754917145,0.02308289147913456,-0.6954506635665894,-0.430851548910141,0.031697217375040054,0.39948800206184387,-0.0157479140907526,0.01757887192070484,0.0014695811551064253,0.09009510278701782,-0.04206011816859245,0.03959645330905914,-0.06525818258523941,-0.04157913103699684,0.04174857214093208,0.03053142875432968,0.046513061970472336,0.39445075392723083,-0.021371155977249146,-0.0530693456530571,-0.0003793676442001015,0.2538014054298401,0.06394477933645248,-0.3703644871711731,-0.016694189980626106,0.03975014388561249,0.5579614043235779,0.04944591596722603,-0.02677888423204422,0.058927327394485474,0.0011476464569568634,-0.029818963259458542,0.03047405555844307,-0.7078211307525635,0.15216395258903503,-0.006991569884121418,0.0034869203809648752,0.022344164550304413,-0.0045562488958239555,-0.012790200300514698,-0.014500082470476627,0.104396291077137,-0.0446583591401577,-0.014299611561000347,-0.04746982455253601,-0.061801861971616745,-0.022402597591280937,0.0025975569151341915,0.000795049243606627,0.010137932375073433,0.5392898321151733,-0.06291737407445908,-0.18455110490322113,0.12924827635288239,-0.0003759156388696283,0.015537528321146965,0.04436205327510834,0.04214929789304733,0.036817409098148346,0.021887371316552162,-0.19678479433059692,0.05148925259709358,-0.24694018065929413,-0.292468398809433,0.05000948905944824,0.3440009355545044,-0.008412307128310204,-0.05981961265206337,-0.029839107766747475,0.8002030849456787,0.03925173357129097,0.008137512020766735,-0.015017475001513958,0.1329464465379715,-0.004515817388892174,-0.03761224076151848,-0.04450296610593796,-0.4151661694049835,-0.02043270319700241,-0.14779618382453918,0.046634431928396225,0.40514200925827026,0.02750159613788128,-0.29111889004707336,-0.015728943049907684,0.020013920962810516,-0.11731402575969696,0.04013973847031593,0.020738545805215836,-0.03566383570432663,0.03580887243151665,-0.6726241111755371,-0.07059834897518158,0.187076598405838,-0.8490246534347534,-0.013227722607553005,0.022620469331741333,-0.004083079285919666,-0.06163383647799492,-0.001427904819138348,-0.10550086945295334,0.01971580646932125,-0.8052213788032532,-0.015094851143658161,-0.006324695888906717,0.04361899942159653,-0.03489641100168228,0.020343631505966187,-0.040935270488262177,-0.029546158388257027,-0.49114763736724854,-0.05344165116548538,0.10102232545614243,0.01744081638753414,0.01387824583798647,-0.011680091731250286,-0.020911889150738716,0.0073126135393977165,0.0405685156583786,0.015730129554867744,0.04717463627457619,0.0639781504869461,-0.4636725187301636,-0.53641676902771,-0.03203793987631798,0.38564616441726685,0.010139652527868748,0.017438476905226707,0.023517584428191185,-0.783304750919342,-0.0031062995549291372,0.009047997184097767,0.02272156812250614,-0.0649132952094078,-0.03085772879421711,0.004307545721530914,0.013706336729228497,0.4826485216617584,0.021783728152513504,0.10265670716762543,0.0392187274992466,-0.7366588711738586,0.0706123560667038,0.32570457458496094,-0.061584632843732834,0.047782253473997116,-0.12703129649162292,0.06166009232401848,0.03381972014904022,0.06900963932275772,-0.027475185692310333,0.7235979437828064,-0.045393090695142746,-0.2959349453449249,0.5951822400093079,0.07214636355638504,0.07045252621173859,-0.01757403463125229,-0.008991374634206295,-0.025295935571193695,-0.07080432027578354,-0.34368181228637695,0.6150028705596924,-0.06153139844536781,-0.039399344474077225,-0.040516577661037445,-0.05931438133120537,0.01274136546999216,-0.03013615310192108,0.0028757979162037373,0.4192968010902405,0.00747917452827096,0.18513154983520508,-0.21358580887317657,-0.02734067663550377,-0.030008459463715553,0.018393121659755707,0.045272693037986755,0.07864547520875931,-0.028562551364302635,0.10778562724590302,0.019391419366002083,0.7241073250770569,0.4714205265045166,0.04607808589935303,-0.2867584824562073,0.05692563205957413,-0.04997305944561958,-0.011917677707970142,0.7534865736961365,-0.016150927171111107,-0.08547014743089676,0.02182169258594513,0.09041547030210495,0.008501601405441761,-0.014045433141291142,-0.04103679582476616,-0.23688232898712158,0.015028329566121101,-0.13448135554790497,-0.029015112668275833,0.644404411315918,0.05848173052072525,-0.5373463034629822,-0.018238281831145287,-0.04537268728017807,0.21668533980846405,0.04392686113715172,-0.001365505624562502,-0.08086349070072174,0.0021152871195226908,-0.6676747798919678,-0.008768646977841854,-0.2461652010679245,-0.693730354309082,0.03382061421871185,0.06923159956932068,0.07479595392942429,-0.04881836101412773,0.0008373681339435279,-0.03590631112456322,0.22831864655017853,-0.7014222145080566,-0.05003251135349274,-0.03711496293544769,0.010476252064108849,-0.04154225438833237,-0.00626727007329464,0.022880302742123604,0.0037896872963756323,-0.13703610002994537,-0.024852216243743896,-0.13816048204898834,0.22280792891979218,-0.005502067506313324,-0.047070909291505814,0.02067834697663784,-0.04190021753311157,0.06272883713245392,-0.019187485799193382,-0.09980089217424393,0.02317964844405651,-0.7433032393455505,-0.530398964881897,0.04367008060216904,0.5447679162025452,-0.01278246846050024,0.006967740599066019,0.03605728968977928,0.6838303804397583,0.005164843052625656,-0.005289326421916485,0.026536550372838974,0.0722421333193779,0.03943784534931183,0.007404607255011797,-0.012226826511323452,-0.5501675009727478,-0.015216395258903503,-0.1838967204093933,0.022937938570976257,0.2229921966791153,0.07755482941865921,-0.24397647380828857,-0.07171528786420822,-0.0448438860476017,-0.4337913393974304,0.01050518173724413,0.014848371967673302,0.013549300841987133,0.013805453665554523,-0.5483683347702026,-0.046201180666685104,0.34024345874786377,-0.8281351923942566,-0.013126054778695107,0.02374871075153351,-0.005161530803889036,-0.005225548520684242,-0.04845244437456131,-0.04412638023495674,-0.11190638691186905,-0.7178001403808594,-0.042663030326366425,0.025440825149416924,0.020164690911769867,-0.02131609246134758,-0.013528336770832539,-0.07120456546545029,-0.0009251655428670347,-0.5918094515800476,-0.07654403895139694,0.3171119689941406,-0.127276211977005,-0.025452779605984688,0.04617399722337723,0.06545393913984299,-0.04152248799800873,0.005221591331064701,-0.013873938471078873,0.15273918211460114,0.002388398163020611,-0.3498398959636688,-0.3597239851951599,0.036749813705682755,0.2697363793849945,0.06782647967338562,0.029390249401330948,0.05120377242565155,0.00004235085361870006,0.05465644225478172,0.03657811880111694,0.02626175247132778,-0.027580514550209045,0.05897260084748268,0.04511144384741783,0.043708425015211105,-0.004383088555186987,0.07361667603254318,-0.01617339253425598,-0.07277528196573257,-0.006053307559341192,0.03536826744675636,0.020201005041599274,-0.04403652623295784,0.06593422591686249,-0.007437602616846561,0.05026821419596672,-0.05253401771187782,-0.024046771228313446,0.04418885335326195,-0.0006517361616715789,-0.059518031775951385,-0.012451991438865662,0.0016233487986028194,0.0672704204916954,0.06763164699077606,0.06111014634370804,-0.07175502926111221,-0.035171762108802795,-0.052907053381204605,-0.026830261573195457,-0.02051129750907421,-0.02491683140397072,-0.0758221223950386,-0.04375277832150459,-0.027112549170851707,0.04462112858891487,-0.03372573107481003,-0.05409815534949303,-0.005593167617917061,-0.05522001534700394,0.013882076367735863,-0.01891038939356804,0.05338644981384277,0.055623024702072144,-0.02454286813735962,-0.06088072061538696,0.039384689182043076,-0.05557247996330261,0.018932634964585304,0.049176402390003204,0.006819610483944416,0.03908778727054596,0.051622238010168076,-0.020848959684371948,0.05292224884033203],[13,60]),
tf.tensor([-0.027145469561219215,0.0001059084534063004,0.14073655009269714,0.00019628426525741816,-0.006731161382049322,0.010031435638666153,0.012294062413275242,0.00012011160288238898,0.000712853332515806,0.000023943552150740288,0.25000685453414917,0.007439255714416504,-0.07462171465158463,-0.0002715388545766473,0.2990383505821228,0.032123126089572906,-0.38519611954689026,-0.03098318725824356,0.0008266870281659067,0.2972564995288849,0.0350247360765934,-0.008908504620194435,-0.031613755971193314,0.000021398955141194165,-0.13208039104938507,-0.025903500616550446,-0.47814103960990906,-0.04316621646285057,0.026371654123067856,0.025245144963264465,0.027102598920464516,-0.014162841252982616,-0.04297730326652527,-0.06222250685095787,0.24933147430419922,-0.1002819761633873,-0.02564459666609764,-0.0004842208290938288,-0.018148967996239662,-0.028848547488451004,0.00004295755934435874,-0.016514811664819717,-0.000019098852135357447,0.2833649814128876,-0.03317856788635254,-0.27147892117500305,0.2727382183074951,0.0002514036896172911,0.00024187788949348032,0.012856491841375828,-0.00008692236588103697,0.033113397657871246,-0.00011503681889735162,-0.25729605555534363,0.014841764234006405,-0.26406386494636536,-0.2934871315956116,0.0000716315844329074,0.3174181282520294,0.015305815264582634],[60]),
tf.tensor([0.34473833441734314,-0.33813321590423584,0.06299841403961182,-0.016733922064304352,0.01755589433014393,0.043051086366176605,0.3942551016807556,0.896715521812439,-1.3977947235107422,0.2148672491312027,0.22116878628730774,0.2729067802429199,0.1519974321126938,-0.1505003124475479,0.14823876321315765,0.3208441734313965,-0.005370482336729765,-0.20483791828155518,-0.17899514734745026,0.09097883850336075,-0.20045439898967743,-0.04412631690502167,-0.22161969542503357,-0.308207631111145,0.10746306926012039,-0.11249497532844543,-0.2267361730337143,-0.06549374014139175,-0.053670257329940796,-0.2530253529548645,-1.2936817407608032,-0.058010514825582504,0.7719929218292236,-0.2088337391614914,0.2664457857608795,0.22110886871814728,0.11176148802042007,0.06303910166025162,0.2594432234764099,0.062008608132600784,-0.25762939453125,-0.21876724064350128,-0.7485705018043518,0.898647665977478,-0.8355973958969116,-0.15079015493392944,-0.07889435440301895,-0.28616246581077576,0.611915111541748,-0.5422261953353882,0.08649790287017822,-0.2297493815422058,-0.15652313828468323,-0.06977567821741104,0.1858346313238144,0.22304055094718933,0.05702095478773117,-0.8436952233314514,0.2976223826408386,0.3886670172214508,-0.16990281641483307,0.0661974847316742,0.0983627438545227,0.016225093975663185,-0.0510978102684021,0.1667298823595047,-0.04608625918626785,-0.23929855227470398,0.20970042049884796,-0.13029302656650543,-0.02896823175251484,-0.19103683531284332,-0.37152737379074097,-0.8628399968147278,0.9102863073348999,-0.22322778403759003,-0.1378518044948578,0.14586788415908813,0.44500622153282166,-0.16128292679786682,-0.3437047004699707,-1.1704866886138916,-0.4385329782962799,1.2097264528274536,0.03733210265636444,-0.01652444712817669,-0.1204308271408081,0.05984184518456459,0.20332279801368713,-0.029503893107175827,0.032567206770181656,-0.07349271327257156,-0.2419033944606781,0.11868283152580261,-0.14185132086277008,-0.31810706853866577,0.006642171181738377,-0.25407150387763977,-0.21469487249851227,0.2560015618801117,-0.27848178148269653,-0.22956404089927673,-0.7948020696640015,0.46878644824028015,0.04014936462044716,-0.3857729732990265,-0.33857932686805725,0.5750985741615295,-0.17551027238368988,-0.031524818390607834,-0.19354157149791718,0.24239413440227509,-0.1789368987083435,0.16681769490242004,-0.23907162249088287,-0.18434487283229828,-0.21578888595104218,-0.2257264405488968,-0.16737453639507294,-0.06320451945066452,-0.03599086031317711,-0.022375399246811867,-0.2527298927307129,-0.24671751260757446,-0.1929473876953125,-0.2066258043050766,-0.01850638911128044,-0.17270465195178986,-0.2090453803539276,-0.8940732479095459,0.1574045866727829,0.8066116571426392,-0.009042734280228615,-0.16310423612594604,-0.13549375534057617,0.5990884304046631,-0.5900093913078308,-0.4887729585170746,-0.7917524576187134,0.0029946209397166967,-0.11939683556556702,-0.06660467386245728,-0.019897012040019035,0.16311217844486237,0.09120875597000122,-0.21075215935707092,-0.3231913447380066,-0.20446018874645233,0.1706184595823288,-0.15184733271598816,0.17193205654621124,0.05501939728856087,0.06280484795570374,-0.1344853788614273,0.2057722806930542,0.090342216193676,0.03262603282928467,-0.1424875110387802,-0.25739964842796326,0.8178532123565674,-0.5885924696922302,-0.5434867739677429,0.08860037475824356,0.13550011813640594,-0.3081905245780945,0.2882731556892395,-0.7108396291732788,0.8739856481552124,0.31389403343200684,-0.6526857018470764,0.16710297763347626,0.31490305066108704,0.18848803639411926,-0.16477398574352264,-0.34345823526382446,0.5029585361480713,-0.17576897144317627,-0.009158165194094181,0.006639262195676565,-0.2603282630443573],[60,3]),
tf.tensor([0.09287726879119873,-0.03409605473279953,-0.034108716994524],[3])
        ]);
        modelLoaded = model;
        console.log("Model loaded successfully.")
    }
).catch(
    err => {
        console.error("Error while loading model:");
        console.error(err);
    }
)

